|--- map_ins_type: 28 ---|
33: 6316
16: 2746
30: 2697
54: 2442
57: 1094
67: 564
71: 525
22: 439
98: 372
108: 343
87: 320
77: 288
89: 268
28: 99
83: 52
62: 23
92: 22
17: 22
81: 12
78: 10
94: 10
7: 6
90: 4
112: 3
32: 3
6: 2
21: 1
19: 1
